-1.090556205389060368e-01,-5.014470529045941261e-01,4.966646706876133577e-02,-6.467563060865688662e-02,-7.963219790606290704e-02,-1.696651642637228841e-01,-2.953497805922277175e-01,1.192709663506946738e-01,-3.183435947143408162e-01,-3.334947193895377859e-01,1.211338327692949024e-01,2.914209427703906563e-02,-4.028467509811806679e-01,1.357812129257238501e-02,-4.561811510610573328e-01,2.566458548265539985e-01,3.328035656776850981e-01,-5.763162618072192878e-03,3.465614853574680021e-01,-4.548948186805248928e-01,-1.625442444395809316e-01,-5.135020540853457716e-01,-2.896632553362372686e-01,-4.034690821194462096e-01,-3.728400282987225367e-01,9.674530897859578982e-02,-3.025946674032208850e-01,-3.930543156753760758e-01,-2.796931270756246590e-01,-1.501737149718037623e-01,-2.382900074291290360e-01,-3.943676467988345147e-01,1.404073797761650200e-01,-1.693016444824835265e-02,5.236720048609764047e-03,-2.335181385361856099e-01,2.936374544415770727e-01,8.000419262898091077e-02,-3.377014014286646160e-01,2.007529603576969079e-01,4.645514807066205010e-01,-3.595083570487059288e-02,2.071797634748347716e-01,-1.583863472872728828e-01,6.714412762770927134e-02,-7.245403670383769590e-02,-6.325273697053400423e-02,2.021269528147359718e-01,3.560458747776905353e-02,4.221889787943934325e-01,-1.134952281921818157e-01,-4.179050777173388687e-01,-2.095598527209759088e-01,3.508505040045016843e-01,-9.372495695201515931e-02,-5.410303249602129716e-01,-2.596304380352125740e-01,-4.388783074323336364e-01,4.563176739084925937e-01,4.705807074977985671e-01,3.002583511325868093e-01,5.966888034793795675e-02,2.649598604516815170e-01,-3.957912741041880733e-01,-3.779748271559525419e-01,2.406716183436046277e-02,-2.040025633107955261e-01,-4.543210347319340259e-01,3.622581645764962333e-01,-5.864508062472910399e-02,4.000816446824370827e-03,-4.074272693210162499e-01,-2.402548224508128383e-01,-1.131101146792291012e-01,3.320169154223086561e-01,2.236623175785338036e-01,-1.207894330583587084e-01,-6.546239978334404963e-01,1.588394092339109887e-01,-2.306112024036988117e-01,8.268501133060533748e-02,-5.089393329501830099e-01,1.503987345915037965e-01,-1.124765741267185204e-01,-2.041781523611923554e-01,-1.254249811441880136e-01,-2.157039515949656094e-01,5.097855123078574857e-02,3.174377340819476978e-01,-3.872235547306372982e-01,-1.867396098920809377e-01,-4.582022880682732890e-01,2.384017676639823835e-01,1.575140525067236785e-01,-2.853640790698465102e-01,-1.687289478067460768e-01,1.438419341481950164e-01,2.408354381764296268e-02,-3.295228665162293069e-01,1.666284391013211907e-01,2.780126686681982373e-01,-4.136341198429057675e-01,3.689166264320787869e-01,2.487778782947805412e-01,2.985870224022940111e-01,4.334794695714777601e-02,-2.791620726677088160e-01,4.184586500475654391e-01,9.208683433399593443e-02,-1.537620905448535691e-01,-2.362214707199802310e-01,4.139155813842761433e-01,-1.212365971615601556e-01,-6.451892943664848390e-02,-1.339819317013186684e-01,3.262498284341579513e-01,5.397675730289629853e-02,-4.587016330068780512e-01,9.125735265354584236e-02,-1.073383300514085814e-02,4.790778009037666152e-02,1.995209975920655687e-01,-3.364921016884486193e-01,-3.456159952868388952e-01,-3.894164501977614434e-01,-2.259389149268898889e-01,-4.897499606004090955e-01,1.293597323375134112e-01,-2.147494567646085761e-01,-3.994103745215473733e-01,-4.047119477391962761e-01,-2.388466323857852402e-01,-2.850756158693018572e-01,-2.144071917232235891e-01,-2.858921987756029431e-02,4.949682108840802730e-02,3.451131352543462816e-01,3.806316587487977854e-01,-4.511319137706120141e-01,-2.678813892217993264e-01,1.433114272500743414e-01,-3.385334371082915350e-01,3.701469028039183207e-01,-3.188654737106211279e-01,2.417550388834489583e-01,1.530205132830832482e-01,9.787665732673442309e-02,-5.077157344545834006e-01,-2.704257434665688353e-01,2.046274991204591887e-01,-4.124374909567551928e-01,-4.694092550385273177e-01,-1.428636354487826943e-01,-1.406726336794955901e-01,-4.477772726158397720e-01,-4.343361381536423593e-01,-4.564988139402843537e-01,-1.048492415323574733e-01,1.452170311533219904e-01,-3.019714472613310718e-01,3.762688962602925846e-01,-6.761089212692035499e-02,1.196417069909331554e-01,-2.099255666733230719e-01,1.152546913050598310e-01,4.536599623823226457e-01,-5.198528343969657795e-02,-2.929466170807412673e-01,-7.463138953332539016e-02,-5.542560553111137295e-02,-7.570756982661562551e-02,-9.991097038078419756e-03,-4.575708080579506398e-01,-3.355788523491823883e-01,-1.545548052662364114e-01,2.079711706540185445e-01,2.775879115940098618e-01,2.771040942826441533e-01,2.779965530118172577e-03,4.438140252850130696e-01,-2.022382789655616520e-01,-6.651170164297785792e-02,2.483739993572877669e-01,3.578417142023483932e-01,-1.324483406716200351e-01,2.963304207189818573e-01,-5.542903647431089015e-02,3.409784635926609020e-02,-4.915516364211631739e-01,-4.747985762740388194e-01,4.404504935420885392e-01,-4.113653485153965228e-01,1.619677904397076595e-01,-2.167412561659111114e-01,-3.488703947912856762e-01,-1.116657885954725760e-01,2.245644476899364139e-01,7.027420975071907439e-02,4.167146119578825081e-01,2.022665079859639337e-01
